digraph Tree {
node [shape=box] ;
0 [label="X[13] <= 0.5\ngini = 0.32\nsamples = 20\nvalue = [16, 4]\nclass = 0"] ;
1 [label="gini = 0.0\nsamples = 16\nvalue = [16, 0]\nclass = 0"] ;
0 -> 1 [labeldistance=2.5, labelangle=45, headlabel="True"] ;
2 [label="gini = 0.0\nsamples = 4\nvalue = [0, 4]\nclass = 1"] ;
0 -> 2 [labeldistance=2.5, labelangle=-45, headlabel="False"] ;
}