digraph Tree {
node [shape=box] ;
0 [label="danceability <= 0.577\ngini = 0.448\nsamples = 1031\nvalue = [682, 349]\nclass = y[0]"] ;
1 [label="instrumentalness <= 0.0\ngini = 0.498\nsamples = 536\nvalue = [252, 284]\nclass = y[1]"] ;
0 -> 1 [labeldistance=2.5, labelangle=45, headlabel="True"] ;
2 [label="loudness <= -11.486\ngini = 0.391\nsamples = 150\nvalue = [110, 40]\nclass = y[0]"] ;
1 -> 2 ;
3 [label="mode <= 0.5\ngini = 0.18\nsamples = 10\nvalue = [1, 9]\nclass = y[1]"] ;
2 -> 3 ;
4 [label="gini = 0.0\nsamples = 1\nvalue = [1, 0]\nclass = y[0]"] ;
3 -> 4 ;
5 [label="gini = 0.0\nsamples = 9\nvalue = [0, 9]\nclass = y[1]"] ;
3 -> 5 ;
6 [label="energy <= 0.537\ngini = 0.345\nsamples = 140\nvalue = [109, 31]\nclass = y[0]"] ;
2 -> 6 ;
7 [label="instrumentalness <= 0.0\ngini = 0.495\nsamples = 31\nvalue = [17, 14]\nclass = y[0]"] ;
6 -> 7 ;
8 [label="tempo <= 173.016\ngini = 0.375\nsamples = 20\nvalue = [15, 5]\nclass = y[0]"] ;
7 -> 8 ;
9 [label="acousticness <= 0.067\ngini = 0.208\nsamples = 17\nvalue = [15, 2]\nclass = y[0]"] ;
8 -> 9 ;
10 [label="gini = 0.0\nsamples = 1\nvalue = [0, 1]\nclass = y[1]"] ;
9 -> 10 ;
11 [label="duration_ms <= 155866.5\ngini = 0.117\nsamples = 16\nvalue = [15, 1]\nclass = y[0]"] ;
9 -> 11 ;
12 [label="gini = 0.5\nsamples = 2\nvalue = [1, 1]\nclass = y[0]"] ;
11 -> 12 ;
13 [label="gini = 0.0\nsamples = 14\nvalue = [14, 0]\nclass = y[0]"] ;
11 -> 13 ;
14 [label="gini = 0.0\nsamples = 3\nvalue = [0, 3]\nclass = y[1]"] ;
8 -> 14 ;
15 [label="key <= 1.0\ngini = 0.298\nsamples = 11\nvalue = [2, 9]\nclass = y[1]"] ;
7 -> 15 ;
16 [label="gini = 0.0\nsamples = 2\nvalue = [2, 0]\nclass = y[0]"] ;
15 -> 16 ;
17 [label="gini = 0.0\nsamples = 9\nvalue = [0, 9]\nclass = y[1]"] ;
15 -> 17 ;
18 [label="speechiness <= 0.028\ngini = 0.263\nsamples = 109\nvalue = [92, 17]\nclass = y[0]"] ;
6 -> 18 ;
19 [label="gini = 0.0\nsamples = 3\nvalue = [0, 3]\nclass = y[1]"] ;
18 -> 19 ;
20 [label="energy <= 0.96\ngini = 0.229\nsamples = 106\nvalue = [92, 14]\nclass = y[0]"] ;
18 -> 20 ;
21 [label="danceability <= 0.572\ngini = 0.204\nsamples = 104\nvalue = [92, 12]\nclass = y[0]"] ;
20 -> 21 ;
22 [label="danceability <= 0.359\ngini = 0.191\nsamples = 103\nvalue = [92, 11]\nclass = y[0]"] ;
21 -> 22 ;
23 [label="loudness <= -4.641\ngini = 0.463\nsamples = 11\nvalue = [7, 4]\nclass = y[0]"] ;
22 -> 23 ;
24 [label="gini = 0.346\nsamples = 9\nvalue = [7, 2]\nclass = y[0]"] ;
23 -> 24 ;
25 [label="gini = 0.0\nsamples = 2\nvalue = [0, 2]\nclass = y[1]"] ;
23 -> 25 ;
26 [label="duration_ms <= 230540.0\ngini = 0.141\nsamples = 92\nvalue = [85, 7]\nclass = y[0]"] ;
22 -> 26 ;
27 [label="time_signature <= 3.5\ngini = 0.034\nsamples = 57\nvalue = [56, 1]\nclass = y[0]"] ;
26 -> 27 ;
28 [label="gini = 0.0\nsamples = 1\nvalue = [0, 1]\nclass = y[1]"] ;
27 -> 28 ;
29 [label="gini = 0.0\nsamples = 56\nvalue = [56, 0]\nclass = y[0]"] ;
27 -> 29 ;
30 [label="acousticness <= 0.282\ngini = 0.284\nsamples = 35\nvalue = [29, 6]\nclass = y[0]"] ;
26 -> 30 ;
31 [label="duration_ms <= 231353.0\ngini = 0.18\nsamples = 30\nvalue = [27, 3]\nclass = y[0]"] ;
30 -> 31 ;
32 [label="gini = 0.0\nsamples = 1\nvalue = [0, 1]\nclass = y[1]"] ;
31 -> 32 ;
33 [label="liveness <= 0.106\ngini = 0.128\nsamples = 29\nvalue = [27, 2]\nclass = y[0]"] ;
31 -> 33 ;
34 [label="gini = 0.408\nsamples = 7\nvalue = [5, 2]\nclass = y[0]"] ;
33 -> 34 ;
35 [label="gini = 0.0\nsamples = 22\nvalue = [22, 0]\nclass = y[0]"] ;
33 -> 35 ;
36 [label="gini = 0.48\nsamples = 5\nvalue = [2, 3]\nclass = y[1]"] ;
30 -> 36 ;
37 [label="gini = 0.0\nsamples = 1\nvalue = [0, 1]\nclass = y[1]"] ;
21 -> 37 ;
38 [label="gini = 0.0\nsamples = 2\nvalue = [0, 2]\nclass = y[1]"] ;
20 -> 38 ;
39 [label="energy <= 0.246\ngini = 0.465\nsamples = 386\nvalue = [142, 244]\nclass = y[1]"] ;
1 -> 39 ;
40 [label="instrumentalness <= 0.003\ngini = 0.18\nsamples = 40\nvalue = [36, 4]\nclass = y[0]"] ;
39 -> 40 ;
41 [label="gini = 0.48\nsamples = 5\nvalue = [2, 3]\nclass = y[1]"] ;
40 -> 41 ;
42 [label="speechiness <= 0.059\ngini = 0.056\nsamples = 35\nvalue = [34, 1]\nclass = y[0]"] ;
40 -> 42 ;
43 [label="gini = 0.0\nsamples = 33\nvalue = [33, 0]\nclass = y[0]"] ;
42 -> 43 ;
44 [label="gini = 0.5\nsamples = 2\nvalue = [1, 1]\nclass = y[0]"] ;
42 -> 44 ;
45 [label="speechiness <= 0.103\ngini = 0.425\nsamples = 346\nvalue = [106, 240]\nclass = y[1]"] ;
39 -> 45 ;
46 [label="speechiness <= 0.035\ngini = 0.383\nsamples = 318\nvalue = [82, 236]\nclass = y[1]"] ;
45 -> 46 ;
47 [label="duration_ms <= 217253.5\ngini = 0.249\nsamples = 151\nvalue = [22, 129]\nclass = y[1]"] ;
46 -> 47 ;
48 [label="energy <= 0.339\ngini = 0.36\nsamples = 68\nvalue = [16, 52]\nclass = y[1]"] ;
47 -> 48 ;
49 [label="gini = 0.444\nsamples = 6\nvalue = [4, 2]\nclass = y[0]"] ;
48 -> 49 ;
50 [label="duration_ms <= 215433.0\ngini = 0.312\nsamples = 62\nvalue = [12, 50]\nclass = y[1]"] ;
48 -> 50 ;
51 [label="liveness <= 0.094\ngini = 0.278\nsamples = 60\nvalue = [10, 50]\nclass = y[1]"] ;
50 -> 51 ;
52 [label="gini = 0.48\nsamples = 5\nvalue = [3, 2]\nclass = y[0]"] ;
51 -> 52 ;
53 [label="liveness <= 0.608\ngini = 0.222\nsamples = 55\nvalue = [7, 48]\nclass = y[1]"] ;
51 -> 53 ;
54 [label="acousticness <= 0.86\ngini = 0.174\nsamples = 52\nvalue = [5, 47]\nclass = y[1]"] ;
53 -> 54 ;
55 [label="time_signature <= 4.5\ngini = 0.145\nsamples = 51\nvalue = [4, 47]\nclass = y[1]"] ;
54 -> 55 ;
56 [label="loudness <= -11.808\ngini = 0.113\nsamples = 50\nvalue = [3, 47]\nclass = y[1]"] ;
55 -> 56 ;
57 [label="gini = 0.5\nsamples = 2\nvalue = [1, 1]\nclass = y[0]"] ;
56 -> 57 ;
58 [label="liveness <= 0.113\ngini = 0.08\nsamples = 48\nvalue = [2, 46]\nclass = y[1]"] ;
56 -> 58 ;
59 [label="tempo <= 79.243\ngini = 0.278\nsamples = 12\nvalue = [2, 10]\nclass = y[1]"] ;
58 -> 59 ;
60 [label="gini = 0.0\nsamples = 1\nvalue = [1, 0]\nclass = y[0]"] ;
59 -> 60 ;
61 [label="liveness <= 0.112\ngini = 0.165\nsamples = 11\nvalue = [1, 10]\nclass = y[1]"] ;
59 -> 61 ;
62 [label="gini = 0.0\nsamples = 9\nvalue = [0, 9]\nclass = y[1]"] ;
61 -> 62 ;
63 [label="gini = 0.5\nsamples = 2\nvalue = [1, 1]\nclass = y[0]"] ;
61 -> 63 ;
64 [label="gini = 0.0\nsamples = 36\nvalue = [0, 36]\nclass = y[1]"] ;
58 -> 64 ;
65 [label="gini = 0.0\nsamples = 1\nvalue = [1, 0]\nclass = y[0]"] ;
55 -> 65 ;
66 [label="gini = 0.0\nsamples = 1\nvalue = [1, 0]\nclass = y[0]"] ;
54 -> 66 ;
67 [label="gini = 0.444\nsamples = 3\nvalue = [2, 1]\nclass = y[0]"] ;
53 -> 67 ;
68 [label="gini = 0.0\nsamples = 2\nvalue = [2, 0]\nclass = y[0]"] ;
50 -> 68 ;
69 [label="danceability <= 0.564\ngini = 0.134\nsamples = 83\nvalue = [6, 77]\nclass = y[1]"] ;
47 -> 69 ;
70 [label="loudness <= -12.597\ngini = 0.096\nsamples = 79\nvalue = [4, 75]\nclass = y[1]"] ;
69 -> 70 ;
71 [label="gini = 0.408\nsamples = 7\nvalue = [2, 5]\nclass = y[1]"] ;
70 -> 71 ;
72 [label="energy <= 0.73\ngini = 0.054\nsamples = 72\nvalue = [2, 70]\nclass = y[1]"] ;
70 -> 72 ;
73 [label="gini = 0.0\nsamples = 62\nvalue = [0, 62]\nclass = y[1]"] ;
72 -> 73 ;
74 [label="tempo <= 136.113\ngini = 0.32\nsamples = 10\nvalue = [2, 8]\nclass = y[1]"] ;
72 -> 74 ;
75 [label="gini = 0.0\nsamples = 8\nvalue = [0, 8]\nclass = y[1]"] ;
74 -> 75 ;
76 [label="gini = 0.0\nsamples = 2\nvalue = [2, 0]\nclass = y[0]"] ;
74 -> 76 ;
77 [label="gini = 0.5\nsamples = 4\nvalue = [2, 2]\nclass = y[0]"] ;
69 -> 77 ;
78 [label="valence <= 0.309\ngini = 0.46\nsamples = 167\nvalue = [60, 107]\nclass = y[1]"] ;
46 -> 78 ;
79 [label="danceability <= 0.406\ngini = 0.487\nsamples = 50\nvalue = [29, 21]\nclass = y[0]"] ;
78 -> 79 ;
80 [label="acousticness <= 0.004\ngini = 0.463\nsamples = 22\nvalue = [8, 14]\nclass = y[1]"] ;
79 -> 80 ;
81 [label="gini = 0.408\nsamples = 7\nvalue = [5, 2]\nclass = y[0]"] ;
80 -> 81 ;
82 [label="valence <= 0.297\ngini = 0.32\nsamples = 15\nvalue = [3, 12]\nclass = y[1]"] ;
80 -> 82 ;
83 [label="energy <= 0.355\ngini = 0.142\nsamples = 13\nvalue = [1, 12]\nclass = y[1]"] ;
82 -> 83 ;
84 [label="gini = 0.0\nsamples = 1\nvalue = [1, 0]\nclass = y[0]"] ;
83 -> 84 ;
85 [label="gini = 0.0\nsamples = 12\nvalue = [0, 12]\nclass = y[1]"] ;
83 -> 85 ;
86 [label="gini = 0.0\nsamples = 2\nvalue = [2, 0]\nclass = y[0]"] ;
82 -> 86 ;
87 [label="liveness <= 0.117\ngini = 0.375\nsamples = 28\nvalue = [21, 7]\nclass = y[0]"] ;
79 -> 87 ;
88 [label="liveness <= 0.101\ngini = 0.492\nsamples = 16\nvalue = [9, 7]\nclass = y[0]"] ;
87 -> 88 ;
89 [label="key <= 7.5\ngini = 0.32\nsamples = 10\nvalue = [8, 2]\nclass = y[0]"] ;
88 -> 89 ;
90 [label="gini = 0.0\nsamples = 7\nvalue = [7, 0]\nclass = y[0]"] ;
89 -> 90 ;
91 [label="gini = 0.444\nsamples = 3\nvalue = [1, 2]\nclass = y[1]"] ;
89 -> 91 ;
92 [label="gini = 0.278\nsamples = 6\nvalue = [1, 5]\nclass = y[1]"] ;
88 -> 92 ;
93 [label="gini = 0.0\nsamples = 12\nvalue = [12, 0]\nclass = y[0]"] ;
87 -> 93 ;
94 [label="danceability <= 0.519\ngini = 0.39\nsamples = 117\nvalue = [31, 86]\nclass = y[1]"] ;
78 -> 94 ;
95 [label="mode <= 0.5\ngini = 0.322\nsamples = 99\nvalue = [20, 79]\nclass = y[1]"] ;
94 -> 95 ;
96 [label="key <= 5.5\ngini = 0.498\nsamples = 30\nvalue = [14, 16]\nclass = y[1]"] ;
95 -> 96 ;
97 [label="duration_ms <= 230826.5\ngini = 0.278\nsamples = 12\nvalue = [2, 10]\nclass = y[1]"] ;
96 -> 97 ;
98 [label="gini = 0.0\nsamples = 9\nvalue = [0, 9]\nclass = y[1]"] ;
97 -> 98 ;
99 [label="gini = 0.444\nsamples = 3\nvalue = [2, 1]\nclass = y[0]"] ;
97 -> 99 ;
100 [label="energy <= 0.934\ngini = 0.444\nsamples = 18\nvalue = [12, 6]\nclass = y[0]"] ;
96 -> 100 ;
101 [label="speechiness <= 0.082\ngini = 0.32\nsamples = 15\nvalue = [12, 3]\nclass = y[0]"] ;
100 -> 101 ;
102 [label="tempo <= 80.553\ngini = 0.245\nsamples = 14\nvalue = [12, 2]\nclass = y[0]"] ;
101 -> 102 ;
103 [label="gini = 0.0\nsamples = 1\nvalue = [0, 1]\nclass = y[1]"] ;
102 -> 103 ;
104 [label="duration_ms <= 294759.0\ngini = 0.142\nsamples = 13\nvalue = [12, 1]\nclass = y[0]"] ;
102 -> 104 ;
105 [label="gini = 0.0\nsamples = 11\nvalue = [11, 0]\nclass = y[0]"] ;
104 -> 105 ;
106 [label="gini = 0.5\nsamples = 2\nvalue = [1, 1]\nclass = y[0]"] ;
104 -> 106 ;
107 [label="gini = 0.0\nsamples = 1\nvalue = [0, 1]\nclass = y[1]"] ;
101 -> 107 ;
108 [label="gini = 0.0\nsamples = 3\nvalue = [0, 3]\nclass = y[1]"] ;
100 -> 108 ;
109 [label="loudness <= -2.302\ngini = 0.159\nsamples = 69\nvalue = [6, 63]\nclass = y[1]"] ;
95 -> 109 ;
110 [label="loudness <= -7.817\ngini = 0.136\nsamples = 68\nvalue = [5, 63]\nclass = y[1]"] ;
109 -> 110 ;
111 [label="duration_ms <= 216053.0\ngini = 0.308\nsamples = 21\nvalue = [4, 17]\nclass = y[1]"] ;
110 -> 111 ;
112 [label="key <= 5.0\ngini = 0.48\nsamples = 10\nvalue = [4, 6]\nclass = y[1]"] ;
111 -> 112 ;
113 [label="gini = 0.32\nsamples = 5\nvalue = [4, 1]\nclass = y[0]"] ;
112 -> 113 ;
114 [label="gini = 0.0\nsamples = 5\nvalue = [0, 5]\nclass = y[1]"] ;
112 -> 114 ;
115 [label="gini = 0.0\nsamples = 11\nvalue = [0, 11]\nclass = y[1]"] ;
111 -> 115 ;
116 [label="acousticness <= 0.0\ngini = 0.042\nsamples = 47\nvalue = [1, 46]\nclass = y[1]"] ;
110 -> 116 ;
117 [label="gini = 0.278\nsamples = 6\nvalue = [1, 5]\nclass = y[1]"] ;
116 -> 117 ;
118 [label="gini = 0.0\nsamples = 41\nvalue = [0, 41]\nclass = y[1]"] ;
116 -> 118 ;
119 [label="gini = 0.0\nsamples = 1\nvalue = [1, 0]\nclass = y[0]"] ;
109 -> 119 ;
120 [label="energy <= 0.671\ngini = 0.475\nsamples = 18\nvalue = [11, 7]\nclass = y[0]"] ;
94 -> 120 ;
121 [label="gini = 0.408\nsamples = 7\nvalue = [2, 5]\nclass = y[1]"] ;
120 -> 121 ;
122 [label="valence <= 0.757\ngini = 0.298\nsamples = 11\nvalue = [9, 2]\nclass = y[0]"] ;
120 -> 122 ;
123 [label="gini = 0.0\nsamples = 8\nvalue = [8, 0]\nclass = y[0]"] ;
122 -> 123 ;
124 [label="gini = 0.444\nsamples = 3\nvalue = [1, 2]\nclass = y[1]"] ;
122 -> 124 ;
125 [label="danceability <= 0.531\ngini = 0.245\nsamples = 28\nvalue = [24, 4]\nclass = y[0]"] ;
45 -> 125 ;
126 [label="key <= 0.5\ngini = 0.08\nsamples = 24\nvalue = [23, 1]\nclass = y[0]"] ;
125 -> 126 ;
127 [label="gini = 0.444\nsamples = 3\nvalue = [2, 1]\nclass = y[0]"] ;
126 -> 127 ;
128 [label="gini = 0.0\nsamples = 21\nvalue = [21, 0]\nclass = y[0]"] ;
126 -> 128 ;
129 [label="gini = 0.375\nsamples = 4\nvalue = [1, 3]\nclass = y[1]"] ;
125 -> 129 ;
130 [label="speechiness <= 0.042\ngini = 0.228\nsamples = 495\nvalue = [430, 65]\nclass = y[0]"] ;
0 -> 130 [labeldistance=2.5, labelangle=-45, headlabel="False"] ;
131 [label="instrumentalness <= 0.0\ngini = 0.451\nsamples = 166\nvalue = [109, 57]\nclass = y[0]"] ;
130 -> 131 ;
132 [label="duration_ms <= 186992.5\ngini = 0.216\nsamples = 73\nvalue = [64, 9]\nclass = y[0]"] ;
131 -> 132 ;
133 [label="loudness <= -8.702\ngini = 0.473\nsamples = 13\nvalue = [8, 5]\nclass = y[0]"] ;
132 -> 133 ;
134 [label="gini = 0.0\nsamples = 3\nvalue = [0, 3]\nclass = y[1]"] ;
133 -> 134 ;
135 [label="energy <= 0.852\ngini = 0.32\nsamples = 10\nvalue = [8, 2]\nclass = y[0]"] ;
133 -> 135 ;
136 [label="gini = 0.0\nsamples = 8\nvalue = [8, 0]\nclass = y[0]"] ;
135 -> 136 ;
137 [label="gini = 0.0\nsamples = 2\nvalue = [0, 2]\nclass = y[1]"] ;
135 -> 137 ;
138 [label="speechiness <= 0.027\ngini = 0.124\nsamples = 60\nvalue = [56, 4]\nclass = y[0]"] ;
132 -> 138 ;
139 [label="gini = 0.5\nsamples = 2\nvalue = [1, 1]\nclass = y[0]"] ;
138 -> 139 ;
140 [label="acousticness <= 0.796\ngini = 0.098\nsamples = 58\nvalue = [55, 3]\nclass = y[0]"] ;
138 -> 140 ;
141 [label="tempo <= 142.297\ngini = 0.07\nsamples = 55\nvalue = [53, 2]\nclass = y[0]"] ;
140 -> 141 ;
142 [label="tempo <= 126.473\ngini = 0.038\nsamples = 52\nvalue = [51, 1]\nclass = y[0]"] ;
141 -> 142 ;
143 [label="gini = 0.0\nsamples = 41\nvalue = [41, 0]\nclass = y[0]"] ;
142 -> 143 ;
144 [label="tempo <= 127.467\ngini = 0.165\nsamples = 11\nvalue = [10, 1]\nclass = y[0]"] ;
142 -> 144 ;
145 [label="gini = 0.0\nsamples = 1\nvalue = [0, 1]\nclass = y[1]"] ;
144 -> 145 ;
146 [label="gini = 0.0\nsamples = 10\nvalue = [10, 0]\nclass = y[0]"] ;
144 -> 146 ;
147 [label="gini = 0.444\nsamples = 3\nvalue = [2, 1]\nclass = y[0]"] ;
141 -> 147 ;
148 [label="gini = 0.444\nsamples = 3\nvalue = [2, 1]\nclass = y[0]"] ;
140 -> 148 ;
149 [label="acousticness <= 0.023\ngini = 0.499\nsamples = 93\nvalue = [45, 48]\nclass = y[1]"] ;
131 -> 149 ;
150 [label="tempo <= 99.903\ngini = 0.355\nsamples = 26\nvalue = [20, 6]\nclass = y[0]"] ;
149 -> 150 ;
151 [label="gini = 0.0\nsamples = 4\nvalue = [0, 4]\nclass = y[1]"] ;
150 -> 151 ;
152 [label="loudness <= -9.132\ngini = 0.165\nsamples = 22\nvalue = [20, 2]\nclass = y[0]"] ;
150 -> 152 ;
153 [label="gini = 0.0\nsamples = 2\nvalue = [0, 2]\nclass = y[1]"] ;
152 -> 153 ;
154 [label="gini = 0.0\nsamples = 20\nvalue = [20, 0]\nclass = y[0]"] ;
152 -> 154 ;
155 [label="danceability <= 0.799\ngini = 0.468\nsamples = 67\nvalue = [25, 42]\nclass = y[1]"] ;
149 -> 155 ;
156 [label="speechiness <= 0.025\ngini = 0.437\nsamples = 62\nvalue = [20, 42]\nclass = y[1]"] ;
155 -> 156 ;
157 [label="gini = 0.0\nsamples = 3\nvalue = [3, 0]\nclass = y[0]"] ;
156 -> 157 ;
158 [label="tempo <= 110.999\ngini = 0.41\nsamples = 59\nvalue = [17, 42]\nclass = y[1]"] ;
156 -> 158 ;
159 [label="liveness <= 0.459\ngini = 0.219\nsamples = 24\nvalue = [3, 21]\nclass = y[1]"] ;
158 -> 159 ;
160 [label="tempo <= 77.44\ngini = 0.159\nsamples = 23\nvalue = [2, 21]\nclass = y[1]"] ;
159 -> 160 ;
161 [label="gini = 0.0\nsamples = 1\nvalue = [1, 0]\nclass = y[0]"] ;
160 -> 161 ;
162 [label="loudness <= -5.839\ngini = 0.087\nsamples = 22\nvalue = [1, 21]\nclass = y[1]"] ;
160 -> 162 ;
163 [label="gini = 0.0\nsamples = 19\nvalue = [0, 19]\nclass = y[1]"] ;
162 -> 163 ;
164 [label="gini = 0.444\nsamples = 3\nvalue = [1, 2]\nclass = y[1]"] ;
162 -> 164 ;
165 [label="gini = 0.0\nsamples = 1\nvalue = [1, 0]\nclass = y[0]"] ;
159 -> 165 ;
166 [label="danceability <= 0.704\ngini = 0.48\nsamples = 35\nvalue = [14, 21]\nclass = y[1]"] ;
158 -> 166 ;
167 [label="valence <= 0.333\ngini = 0.428\nsamples = 29\nvalue = [9, 20]\nclass = y[1]"] ;
166 -> 167 ;
168 [label="gini = 0.32\nsamples = 5\nvalue = [4, 1]\nclass = y[0]"] ;
167 -> 168 ;
169 [label="tempo <= 113.718\ngini = 0.33\nsamples = 24\nvalue = [5, 19]\nclass = y[1]"] ;
167 -> 169 ;
170 [label="gini = 0.0\nsamples = 2\nvalue = [2, 0]\nclass = y[0]"] ;
169 -> 170 ;
171 [label="speechiness <= 0.028\ngini = 0.236\nsamples = 22\nvalue = [3, 19]\nclass = y[1]"] ;
169 -> 171 ;
172 [label="gini = 0.5\nsamples = 6\nvalue = [3, 3]\nclass = y[0]"] ;
171 -> 172 ;
173 [label="gini = 0.0\nsamples = 16\nvalue = [0, 16]\nclass = y[1]"] ;
171 -> 173 ;
174 [label="gini = 0.278\nsamples = 6\nvalue = [5, 1]\nclass = y[0]"] ;
166 -> 174 ;
175 [label="gini = 0.0\nsamples = 5\nvalue = [5, 0]\nclass = y[0]"] ;
155 -> 175 ;
176 [label="duration_ms <= 134022.0\ngini = 0.047\nsamples = 329\nvalue = [321, 8]\nclass = y[0]"] ;
130 -> 176 ;
177 [label="gini = 0.49\nsamples = 7\nvalue = [4, 3]\nclass = y[0]"] ;
176 -> 177 ;
178 [label="speechiness <= 0.048\ngini = 0.031\nsamples = 322\nvalue = [317, 5]\nclass = y[0]"] ;
176 -> 178 ;
179 [label="liveness <= 0.042\ngini = 0.165\nsamples = 33\nvalue = [30, 3]\nclass = y[0]"] ;
178 -> 179 ;
180 [label="gini = 0.0\nsamples = 1\nvalue = [0, 1]\nclass = y[1]"] ;
179 -> 180 ;
181 [label="loudness <= -8.34\ngini = 0.117\nsamples = 32\nvalue = [30, 2]\nclass = y[0]"] ;
179 -> 181 ;
182 [label="gini = 0.408\nsamples = 7\nvalue = [5, 2]\nclass = y[0]"] ;
181 -> 182 ;
183 [label="gini = 0.0\nsamples = 25\nvalue = [25, 0]\nclass = y[0]"] ;
181 -> 183 ;
184 [label="time_signature <= 3.5\ngini = 0.014\nsamples = 289\nvalue = [287, 2]\nclass = y[0]"] ;
178 -> 184 ;
185 [label="gini = 0.444\nsamples = 3\nvalue = [2, 1]\nclass = y[0]"] ;
184 -> 185 ;
186 [label="valence <= 0.936\ngini = 0.007\nsamples = 286\nvalue = [285, 1]\nclass = y[0]"] ;
184 -> 186 ;
187 [label="gini = 0.0\nsamples = 274\nvalue = [274, 0]\nclass = y[0]"] ;
186 -> 187 ;
188 [label="liveness <= 0.343\ngini = 0.153\nsamples = 12\nvalue = [11, 1]\nclass = y[0]"] ;
186 -> 188 ;
189 [label="gini = 0.0\nsamples = 11\nvalue = [11, 0]\nclass = y[0]"] ;
188 -> 189 ;
190 [label="gini = 0.0\nsamples = 1\nvalue = [0, 1]\nclass = y[1]"] ;
188 -> 190 ;
}