digraph Tree {
node [shape=box] ;
0 [label="danceability <= 0.581\ngini = 0.45\nsamples = 1039\nvalue = [684, 355]\nclass = y[0]"] ;
1 [label="instrumentalness <= 0.0\ngini = 0.497\nsamples = 531\nvalue = [246, 285]\nclass = y[1]"] ;
0 -> 1 [labeldistance=2.5, labelangle=45, headlabel="True"] ;
2 [label="energy <= 0.571\ngini = 0.367\nsamples = 153\nvalue = [116, 37]\nclass = y[0]"] ;
1 -> 2 ;
3 [label="liveness <= 0.091\ngini = 0.492\nsamples = 39\nvalue = [17, 22]\nclass = y[1]"] ;
2 -> 3 ;
4 [label="gini = 0.346\nsamples = 9\nvalue = [7, 2]\nclass = y[0]"] ;
3 -> 4 ;
5 [label="energy <= 0.227\ngini = 0.444\nsamples = 30\nvalue = [10, 20]\nclass = y[1]"] ;
3 -> 5 ;
6 [label="gini = 0.0\nsamples = 2\nvalue = [2, 0]\nclass = y[0]"] ;
5 -> 6 ;
7 [label="danceability <= 0.566\ngini = 0.408\nsamples = 28\nvalue = [8, 20]\nclass = y[1]"] ;
5 -> 7 ;
8 [label="speechiness <= 0.029\ngini = 0.33\nsamples = 24\nvalue = [5, 19]\nclass = y[1]"] ;
7 -> 8 ;
9 [label="gini = 0.5\nsamples = 8\nvalue = [4, 4]\nclass = y[0]"] ;
8 -> 9 ;
10 [label="acousticness <= 0.123\ngini = 0.117\nsamples = 16\nvalue = [1, 15]\nclass = y[1]"] ;
8 -> 10 ;
11 [label="gini = 0.5\nsamples = 2\nvalue = [1, 1]\nclass = y[0]"] ;
10 -> 11 ;
12 [label="gini = 0.0\nsamples = 14\nvalue = [0, 14]\nclass = y[1]"] ;
10 -> 12 ;
13 [label="gini = 0.375\nsamples = 4\nvalue = [3, 1]\nclass = y[0]"] ;
7 -> 13 ;
14 [label="speechiness <= 0.027\ngini = 0.229\nsamples = 114\nvalue = [99, 15]\nclass = y[0]"] ;
2 -> 14 ;
15 [label="gini = 0.375\nsamples = 4\nvalue = [1, 3]\nclass = y[1]"] ;
14 -> 15 ;
16 [label="duration_ms <= 128817.0\ngini = 0.194\nsamples = 110\nvalue = [98, 12]\nclass = y[0]"] ;
14 -> 16 ;
17 [label="gini = 0.444\nsamples = 3\nvalue = [1, 2]\nclass = y[1]"] ;
16 -> 17 ;
18 [label="loudness <= -11.66\ngini = 0.169\nsamples = 107\nvalue = [97, 10]\nclass = y[0]"] ;
16 -> 18 ;
19 [label="gini = 0.0\nsamples = 1\nvalue = [0, 1]\nclass = y[1]"] ;
18 -> 19 ;
20 [label="liveness <= 0.05\ngini = 0.155\nsamples = 106\nvalue = [97, 9]\nclass = y[0]"] ;
18 -> 20 ;
21 [label="gini = 0.0\nsamples = 1\nvalue = [0, 1]\nclass = y[1]"] ;
20 -> 21 ;
22 [label="instrumentalness <= 0.0\ngini = 0.141\nsamples = 105\nvalue = [97, 8]\nclass = y[0]"] ;
20 -> 22 ;
23 [label="acousticness <= 0.516\ngini = 0.077\nsamples = 75\nvalue = [72, 3]\nclass = y[0]"] ;
22 -> 23 ;
24 [label="speechiness <= 0.04\ngini = 0.053\nsamples = 73\nvalue = [71, 2]\nclass = y[0]"] ;
23 -> 24 ;
25 [label="liveness <= 0.078\ngini = 0.172\nsamples = 21\nvalue = [19, 2]\nclass = y[0]"] ;
24 -> 25 ;
26 [label="gini = 0.0\nsamples = 1\nvalue = [0, 1]\nclass = y[1]"] ;
25 -> 26 ;
27 [label="danceability <= 0.471\ngini = 0.095\nsamples = 20\nvalue = [19, 1]\nclass = y[0]"] ;
25 -> 27 ;
28 [label="gini = 0.444\nsamples = 3\nvalue = [2, 1]\nclass = y[0]"] ;
27 -> 28 ;
29 [label="gini = 0.0\nsamples = 17\nvalue = [17, 0]\nclass = y[0]"] ;
27 -> 29 ;
30 [label="gini = 0.0\nsamples = 52\nvalue = [52, 0]\nclass = y[0]"] ;
24 -> 30 ;
31 [label="gini = 0.5\nsamples = 2\nvalue = [1, 1]\nclass = y[0]"] ;
23 -> 31 ;
32 [label="speechiness <= 0.03\ngini = 0.278\nsamples = 30\nvalue = [25, 5]\nclass = y[0]"] ;
22 -> 32 ;
33 [label="gini = 0.0\nsamples = 1\nvalue = [0, 1]\nclass = y[1]"] ;
32 -> 33 ;
34 [label="liveness <= 0.122\ngini = 0.238\nsamples = 29\nvalue = [25, 4]\nclass = y[0]"] ;
32 -> 34 ;
35 [label="gini = 0.444\nsamples = 9\nvalue = [6, 3]\nclass = y[0]"] ;
34 -> 35 ;
36 [label="energy <= 0.975\ngini = 0.095\nsamples = 20\nvalue = [19, 1]\nclass = y[0]"] ;
34 -> 36 ;
37 [label="gini = 0.0\nsamples = 19\nvalue = [19, 0]\nclass = y[0]"] ;
36 -> 37 ;
38 [label="gini = 0.0\nsamples = 1\nvalue = [0, 1]\nclass = y[1]"] ;
36 -> 38 ;
39 [label="loudness <= -14.256\ngini = 0.451\nsamples = 378\nvalue = [130, 248]\nclass = y[1]"] ;
1 -> 39 ;
40 [label="instrumentalness <= 0.275\ngini = 0.295\nsamples = 39\nvalue = [32, 7]\nclass = y[0]"] ;
39 -> 40 ;
41 [label="liveness <= 0.126\ngini = 0.486\nsamples = 12\nvalue = [5, 7]\nclass = y[1]"] ;
40 -> 41 ;
42 [label="gini = 0.0\nsamples = 7\nvalue = [0, 7]\nclass = y[1]"] ;
41 -> 42 ;
43 [label="gini = 0.0\nsamples = 5\nvalue = [5, 0]\nclass = y[0]"] ;
41 -> 43 ;
44 [label="gini = 0.0\nsamples = 27\nvalue = [27, 0]\nclass = y[0]"] ;
40 -> 44 ;
45 [label="speechiness <= 0.089\ngini = 0.411\nsamples = 339\nvalue = [98, 241]\nclass = y[1]"] ;
39 -> 45 ;
46 [label="loudness <= -5.872\ngini = 0.366\nsamples = 307\nvalue = [74, 233]\nclass = y[1]"] ;
45 -> 46 ;
47 [label="energy <= 0.246\ngini = 0.289\nsamples = 223\nvalue = [39, 184]\nclass = y[1]"] ;
46 -> 47 ;
48 [label="gini = 0.444\nsamples = 9\nvalue = [6, 3]\nclass = y[0]"] ;
47 -> 48 ;
49 [label="acousticness <= 0.0\ngini = 0.261\nsamples = 214\nvalue = [33, 181]\nclass = y[1]"] ;
47 -> 49 ;
50 [label="gini = 0.494\nsamples = 9\nvalue = [5, 4]\nclass = y[0]"] ;
49 -> 50 ;
51 [label="valence <= 0.065\ngini = 0.236\nsamples = 205\nvalue = [28, 177]\nclass = y[1]"] ;
49 -> 51 ;
52 [label="gini = 0.48\nsamples = 5\nvalue = [3, 2]\nclass = y[0]"] ;
51 -> 52 ;
53 [label="liveness <= 0.594\ngini = 0.219\nsamples = 200\nvalue = [25, 175]\nclass = y[1]"] ;
51 -> 53 ;
54 [label="liveness <= 0.04\ngini = 0.201\nsamples = 194\nvalue = [22, 172]\nclass = y[1]"] ;
53 -> 54 ;
55 [label="gini = 0.0\nsamples = 1\nvalue = [1, 0]\nclass = y[0]"] ;
54 -> 55 ;
56 [label="tempo <= 94.797\ngini = 0.194\nsamples = 193\nvalue = [21, 172]\nclass = y[1]"] ;
54 -> 56 ;
57 [label="acousticness <= 0.003\ngini = 0.074\nsamples = 52\nvalue = [2, 50]\nclass = y[1]"] ;
56 -> 57 ;
58 [label="gini = 0.5\nsamples = 4\nvalue = [2, 2]\nclass = y[0]"] ;
57 -> 58 ;
59 [label="gini = 0.0\nsamples = 48\nvalue = [0, 48]\nclass = y[1]"] ;
57 -> 59 ;
60 [label="tempo <= 95.137\ngini = 0.233\nsamples = 141\nvalue = [19, 122]\nclass = y[1]"] ;
56 -> 60 ;
61 [label="gini = 0.0\nsamples = 1\nvalue = [1, 0]\nclass = y[0]"] ;
60 -> 61 ;
62 [label="mode <= 0.5\ngini = 0.224\nsamples = 140\nvalue = [18, 122]\nclass = y[1]"] ;
60 -> 62 ;
63 [label="tempo <= 102.996\ngini = 0.403\nsamples = 25\nvalue = [7, 18]\nclass = y[1]"] ;
62 -> 63 ;
64 [label="gini = 0.0\nsamples = 2\nvalue = [2, 0]\nclass = y[0]"] ;
63 -> 64 ;
65 [label="loudness <= -12.598\ngini = 0.34\nsamples = 23\nvalue = [5, 18]\nclass = y[1]"] ;
63 -> 65 ;
66 [label="gini = 0.0\nsamples = 1\nvalue = [1, 0]\nclass = y[0]"] ;
65 -> 66 ;
67 [label="danceability <= 0.568\ngini = 0.298\nsamples = 22\nvalue = [4, 18]\nclass = y[1]"] ;
65 -> 67 ;
68 [label="speechiness <= 0.03\ngini = 0.245\nsamples = 21\nvalue = [3, 18]\nclass = y[1]"] ;
67 -> 68 ;
69 [label="gini = 0.5\nsamples = 2\nvalue = [1, 1]\nclass = y[0]"] ;
68 -> 69 ;
70 [label="speechiness <= 0.042\ngini = 0.188\nsamples = 19\nvalue = [2, 17]\nclass = y[1]"] ;
68 -> 70 ;
71 [label="gini = 0.0\nsamples = 9\nvalue = [0, 9]\nclass = y[1]"] ;
70 -> 71 ;
72 [label="speechiness <= 0.046\ngini = 0.32\nsamples = 10\nvalue = [2, 8]\nclass = y[1]"] ;
70 -> 72 ;
73 [label="gini = 0.0\nsamples = 2\nvalue = [2, 0]\nclass = y[0]"] ;
72 -> 73 ;
74 [label="gini = 0.0\nsamples = 8\nvalue = [0, 8]\nclass = y[1]"] ;
72 -> 74 ;
75 [label="gini = 0.0\nsamples = 1\nvalue = [1, 0]\nclass = y[0]"] ;
67 -> 75 ;
76 [label="acousticness <= 0.037\ngini = 0.173\nsamples = 115\nvalue = [11, 104]\nclass = y[1]"] ;
62 -> 76 ;
77 [label="tempo <= 167.049\ngini = 0.041\nsamples = 48\nvalue = [1, 47]\nclass = y[1]"] ;
76 -> 77 ;
78 [label="gini = 0.0\nsamples = 47\nvalue = [0, 47]\nclass = y[1]"] ;
77 -> 78 ;
79 [label="gini = 0.0\nsamples = 1\nvalue = [1, 0]\nclass = y[0]"] ;
77 -> 79 ;
80 [label="acousticness <= 0.043\ngini = 0.254\nsamples = 67\nvalue = [10, 57]\nclass = y[1]"] ;
76 -> 80 ;
81 [label="gini = 0.444\nsamples = 3\nvalue = [2, 1]\nclass = y[0]"] ;
80 -> 81 ;
82 [label="time_signature <= 3.5\ngini = 0.219\nsamples = 64\nvalue = [8, 56]\nclass = y[1]"] ;
80 -> 82 ;
83 [label="gini = 0.469\nsamples = 8\nvalue = [3, 5]\nclass = y[1]"] ;
82 -> 83 ;
84 [label="liveness <= 0.393\ngini = 0.163\nsamples = 56\nvalue = [5, 51]\nclass = y[1]"] ;
82 -> 84 ;
85 [label="instrumentalness <= 0.015\ngini = 0.137\nsamples = 54\nvalue = [4, 50]\nclass = y[1]"] ;
84 -> 85 ;
86 [label="energy <= 0.531\ngini = 0.298\nsamples = 22\nvalue = [4, 18]\nclass = y[1]"] ;
85 -> 86 ;
87 [label="gini = 0.0\nsamples = 11\nvalue = [0, 11]\nclass = y[1]"] ;
86 -> 87 ;
88 [label="valence <= 0.569\ngini = 0.463\nsamples = 11\nvalue = [4, 7]\nclass = y[1]"] ;
86 -> 88 ;
89 [label="gini = 0.444\nsamples = 6\nvalue = [4, 2]\nclass = y[0]"] ;
88 -> 89 ;
90 [label="gini = 0.0\nsamples = 5\nvalue = [0, 5]\nclass = y[1]"] ;
88 -> 90 ;
91 [label="gini = 0.0\nsamples = 32\nvalue = [0, 32]\nclass = y[1]"] ;
85 -> 91 ;
92 [label="gini = 0.5\nsamples = 2\nvalue = [1, 1]\nclass = y[0]"] ;
84 -> 92 ;
93 [label="gini = 0.5\nsamples = 6\nvalue = [3, 3]\nclass = y[0]"] ;
53 -> 93 ;
94 [label="danceability <= 0.481\ngini = 0.486\nsamples = 84\nvalue = [35, 49]\nclass = y[1]"] ;
46 -> 94 ;
95 [label="valence <= 0.405\ngini = 0.38\nsamples = 51\nvalue = [13, 38]\nclass = y[1]"] ;
94 -> 95 ;
96 [label="key <= 8.5\ngini = 0.497\nsamples = 24\nvalue = [11, 13]\nclass = y[1]"] ;
95 -> 96 ;
97 [label="liveness <= 0.171\ngini = 0.432\nsamples = 19\nvalue = [6, 13]\nclass = y[1]"] ;
96 -> 97 ;
98 [label="gini = 0.0\nsamples = 9\nvalue = [0, 9]\nclass = y[1]"] ;
97 -> 98 ;
99 [label="time_signature <= 3.5\ngini = 0.48\nsamples = 10\nvalue = [6, 4]\nclass = y[0]"] ;
97 -> 99 ;
100 [label="gini = 0.0\nsamples = 3\nvalue = [0, 3]\nclass = y[1]"] ;
99 -> 100 ;
101 [label="gini = 0.245\nsamples = 7\nvalue = [6, 1]\nclass = y[0]"] ;
99 -> 101 ;
102 [label="gini = 0.0\nsamples = 5\nvalue = [5, 0]\nclass = y[0]"] ;
96 -> 102 ;
103 [label="tempo <= 204.226\ngini = 0.137\nsamples = 27\nvalue = [2, 25]\nclass = y[1]"] ;
95 -> 103 ;
104 [label="liveness <= 0.077\ngini = 0.074\nsamples = 26\nvalue = [1, 25]\nclass = y[1]"] ;
103 -> 104 ;
105 [label="gini = 0.0\nsamples = 1\nvalue = [1, 0]\nclass = y[0]"] ;
104 -> 105 ;
106 [label="gini = 0.0\nsamples = 25\nvalue = [0, 25]\nclass = y[1]"] ;
104 -> 106 ;
107 [label="gini = 0.0\nsamples = 1\nvalue = [1, 0]\nclass = y[0]"] ;
103 -> 107 ;
108 [label="instrumentalness <= 0.788\ngini = 0.444\nsamples = 33\nvalue = [22, 11]\nclass = y[0]"] ;
94 -> 108 ;
109 [label="speechiness <= 0.032\ngini = 0.366\nsamples = 29\nvalue = [22, 7]\nclass = y[0]"] ;
108 -> 109 ;
110 [label="gini = 0.444\nsamples = 6\nvalue = [2, 4]\nclass = y[1]"] ;
109 -> 110 ;
111 [label="duration_ms <= 125647.0\ngini = 0.227\nsamples = 23\nvalue = [20, 3]\nclass = y[0]"] ;
109 -> 111 ;
112 [label="gini = 0.0\nsamples = 1\nvalue = [0, 1]\nclass = y[1]"] ;
111 -> 112 ;
113 [label="key <= 10.5\ngini = 0.165\nsamples = 22\nvalue = [20, 2]\nclass = y[0]"] ;
111 -> 113 ;
114 [label="loudness <= -1.824\ngini = 0.091\nsamples = 21\nvalue = [20, 1]\nclass = y[0]"] ;
113 -> 114 ;
115 [label="gini = 0.0\nsamples = 20\nvalue = [20, 0]\nclass = y[0]"] ;
114 -> 115 ;
116 [label="gini = 0.0\nsamples = 1\nvalue = [0, 1]\nclass = y[1]"] ;
114 -> 116 ;
117 [label="gini = 0.0\nsamples = 1\nvalue = [0, 1]\nclass = y[1]"] ;
113 -> 117 ;
118 [label="gini = 0.0\nsamples = 4\nvalue = [0, 4]\nclass = y[1]"] ;
108 -> 118 ;
119 [label="acousticness <= 0.006\ngini = 0.375\nsamples = 32\nvalue = [24, 8]\nclass = y[0]"] ;
45 -> 119 ;
120 [label="key <= 0.5\ngini = 0.095\nsamples = 20\nvalue = [19, 1]\nclass = y[0]"] ;
119 -> 120 ;
121 [label="gini = 0.5\nsamples = 2\nvalue = [1, 1]\nclass = y[0]"] ;
120 -> 121 ;
122 [label="gini = 0.0\nsamples = 18\nvalue = [18, 0]\nclass = y[0]"] ;
120 -> 122 ;
123 [label="liveness <= 0.094\ngini = 0.486\nsamples = 12\nvalue = [5, 7]\nclass = y[1]"] ;
119 -> 123 ;
124 [label="gini = 0.0\nsamples = 3\nvalue = [3, 0]\nclass = y[0]"] ;
123 -> 124 ;
125 [label="gini = 0.346\nsamples = 9\nvalue = [2, 7]\nclass = y[1]"] ;
123 -> 125 ;
126 [label="speechiness <= 0.038\ngini = 0.238\nsamples = 508\nvalue = [438, 70]\nclass = y[0]"] ;
0 -> 126 [labeldistance=2.5, labelangle=-45, headlabel="False"] ;
127 [label="instrumentalness <= 0.0\ngini = 0.474\nsamples = 150\nvalue = [92, 58]\nclass = y[0]"] ;
126 -> 127 ;
128 [label="duration_ms <= 197663.5\ngini = 0.16\nsamples = 57\nvalue = [52, 5]\nclass = y[0]"] ;
127 -> 128 ;
129 [label="duration_ms <= 194696.5\ngini = 0.415\nsamples = 17\nvalue = [12, 5]\nclass = y[0]"] ;
128 -> 129 ;
130 [label="tempo <= 85.025\ngini = 0.32\nsamples = 15\nvalue = [12, 3]\nclass = y[0]"] ;
129 -> 130 ;
131 [label="gini = 0.0\nsamples = 2\nvalue = [0, 2]\nclass = y[1]"] ;
130 -> 131 ;
132 [label="speechiness <= 0.037\ngini = 0.142\nsamples = 13\nvalue = [12, 1]\nclass = y[0]"] ;
130 -> 132 ;
133 [label="gini = 0.0\nsamples = 12\nvalue = [12, 0]\nclass = y[0]"] ;
132 -> 133 ;
134 [label="gini = 0.0\nsamples = 1\nvalue = [0, 1]\nclass = y[1]"] ;
132 -> 134 ;
135 [label="gini = 0.0\nsamples = 2\nvalue = [0, 2]\nclass = y[1]"] ;
129 -> 135 ;
136 [label="gini = 0.0\nsamples = 40\nvalue = [40, 0]\nclass = y[0]"] ;
128 -> 136 ;
137 [label="danceability <= 0.686\ngini = 0.49\nsamples = 93\nvalue = [40, 53]\nclass = y[1]"] ;
127 -> 137 ;
138 [label="speechiness <= 0.025\ngini = 0.426\nsamples = 65\nvalue = [20, 45]\nclass = y[1]"] ;
137 -> 138 ;
139 [label="gini = 0.0\nsamples = 3\nvalue = [3, 0]\nclass = y[0]"] ;
138 -> 139 ;
140 [label="acousticness <= 0.338\ngini = 0.398\nsamples = 62\nvalue = [17, 45]\nclass = y[1]"] ;
138 -> 140 ;
141 [label="valence <= 0.34\ngini = 0.48\nsamples = 40\nvalue = [16, 24]\nclass = y[1]"] ;
140 -> 141 ;
142 [label="tempo <= 112.581\ngini = 0.32\nsamples = 10\nvalue = [8, 2]\nclass = y[0]"] ;
141 -> 142 ;
143 [label="gini = 0.0\nsamples = 2\nvalue = [0, 2]\nclass = y[1]"] ;
142 -> 143 ;
144 [label="gini = 0.0\nsamples = 8\nvalue = [8, 0]\nclass = y[0]"] ;
142 -> 144 ;
145 [label="energy <= 0.747\ngini = 0.391\nsamples = 30\nvalue = [8, 22]\nclass = y[1]"] ;
141 -> 145 ;
146 [label="instrumentalness <= 0.001\ngini = 0.117\nsamples = 16\nvalue = [1, 15]\nclass = y[1]"] ;
145 -> 146 ;
147 [label="gini = 0.0\nsamples = 1\nvalue = [1, 0]\nclass = y[0]"] ;
146 -> 147 ;
148 [label="gini = 0.0\nsamples = 15\nvalue = [0, 15]\nclass = y[1]"] ;
146 -> 148 ;
149 [label="tempo <= 119.514\ngini = 0.5\nsamples = 14\nvalue = [7, 7]\nclass = y[0]"] ;
145 -> 149 ;
150 [label="gini = 0.278\nsamples = 6\nvalue = [1, 5]\nclass = y[1]"] ;
149 -> 150 ;
151 [label="gini = 0.375\nsamples = 8\nvalue = [6, 2]\nclass = y[0]"] ;
149 -> 151 ;
152 [label="liveness <= 0.311\ngini = 0.087\nsamples = 22\nvalue = [1, 21]\nclass = y[1]"] ;
140 -> 152 ;
153 [label="gini = 0.0\nsamples = 21\nvalue = [0, 21]\nclass = y[1]"] ;
152 -> 153 ;
154 [label="gini = 0.0\nsamples = 1\nvalue = [1, 0]\nclass = y[0]"] ;
152 -> 154 ;
155 [label="danceability <= 0.764\ngini = 0.408\nsamples = 28\nvalue = [20, 8]\nclass = y[0]"] ;
137 -> 155 ;
156 [label="gini = 0.0\nsamples = 14\nvalue = [14, 0]\nclass = y[0]"] ;
155 -> 156 ;
157 [label="duration_ms <= 270026.5\ngini = 0.49\nsamples = 14\nvalue = [6, 8]\nclass = y[1]"] ;
155 -> 157 ;
158 [label="instrumentalness <= 0.169\ngini = 0.397\nsamples = 11\nvalue = [3, 8]\nclass = y[1]"] ;
157 -> 158 ;
159 [label="gini = 0.0\nsamples = 5\nvalue = [0, 5]\nclass = y[1]"] ;
158 -> 159 ;
160 [label="gini = 0.5\nsamples = 6\nvalue = [3, 3]\nclass = y[0]"] ;
158 -> 160 ;
161 [label="gini = 0.0\nsamples = 3\nvalue = [3, 0]\nclass = y[0]"] ;
157 -> 161 ;
162 [label="duration_ms <= 159237.0\ngini = 0.065\nsamples = 358\nvalue = [346, 12]\nclass = y[0]"] ;
126 -> 162 ;
163 [label="danceability <= 0.668\ngini = 0.388\nsamples = 19\nvalue = [14, 5]\nclass = y[0]"] ;
162 -> 163 ;
164 [label="gini = 0.0\nsamples = 5\nvalue = [0, 5]\nclass = y[1]"] ;
163 -> 164 ;
165 [label="gini = 0.0\nsamples = 14\nvalue = [14, 0]\nclass = y[0]"] ;
163 -> 165 ;
166 [label="danceability <= 0.593\ngini = 0.04\nsamples = 339\nvalue = [332, 7]\nclass = y[0]"] ;
162 -> 166 ;
167 [label="danceability <= 0.589\ngini = 0.32\nsamples = 15\nvalue = [12, 3]\nclass = y[0]"] ;
166 -> 167 ;
168 [label="gini = 0.0\nsamples = 10\nvalue = [10, 0]\nclass = y[0]"] ;
167 -> 168 ;
169 [label="gini = 0.48\nsamples = 5\nvalue = [2, 3]\nclass = y[1]"] ;
167 -> 169 ;
170 [label="speechiness <= 0.04\ngini = 0.024\nsamples = 324\nvalue = [320, 4]\nclass = y[0]"] ;
166 -> 170 ;
171 [label="acousticness <= 0.551\ngini = 0.153\nsamples = 24\nvalue = [22, 2]\nclass = y[0]"] ;
170 -> 171 ;
172 [label="duration_ms <= 191320.0\ngini = 0.083\nsamples = 23\nvalue = [22, 1]\nclass = y[0]"] ;
171 -> 172 ;
173 [label="gini = 0.444\nsamples = 3\nvalue = [2, 1]\nclass = y[0]"] ;
172 -> 173 ;
174 [label="gini = 0.0\nsamples = 20\nvalue = [20, 0]\nclass = y[0]"] ;
172 -> 174 ;
175 [label="gini = 0.0\nsamples = 1\nvalue = [0, 1]\nclass = y[1]"] ;
171 -> 175 ;
176 [label="duration_ms <= 170882.0\ngini = 0.013\nsamples = 300\nvalue = [298, 2]\nclass = y[0]"] ;
170 -> 176 ;
177 [label="gini = 0.245\nsamples = 7\nvalue = [6, 1]\nclass = y[0]"] ;
176 -> 177 ;
178 [label="speechiness <= 0.046\ngini = 0.007\nsamples = 293\nvalue = [292, 1]\nclass = y[0]"] ;
176 -> 178 ;
179 [label="speechiness <= 0.045\ngini = 0.053\nsamples = 37\nvalue = [36, 1]\nclass = y[0]"] ;
178 -> 179 ;
180 [label="gini = 0.0\nsamples = 36\nvalue = [36, 0]\nclass = y[0]"] ;
179 -> 180 ;
181 [label="gini = 0.0\nsamples = 1\nvalue = [0, 1]\nclass = y[1]"] ;
179 -> 181 ;
182 [label="gini = 0.0\nsamples = 256\nvalue = [256, 0]\nclass = y[0]"] ;
178 -> 182 ;
}